svm_type c_svc
kernel_type rbf
gamma 0.5
nr_class 3
total_sv 26
rho 0.0038859996197248411 0.41708266178288911 0.050897546509829257
label 3 2 1
nr_sv 4 11 11
SV
0 0.080944680218113366 1:-0.948223 2:-0.465116 3:0.715547 4:0.96084 5:0.919194 6:-0.414612 
1.4084215391528925 2.198463089755379 1:-1 2:-0.413953 3:0.58548 4:0.960073 5:0.885779 6:-0.428093 
1.7749473036746883 0.56619408111052294 1:-0.696976 2:-0.767442 3:0.531024 4:0.896886 5:0.114191 6:0.418335 
8.5545667648014767 3.8140464483255005 1:0.491353 2:-0.809302 3:0.13766 4:0.283092 5:0.781134 6:0.449844 
-0.50812307250870725 0 1:0.779947 2:-0.35814 3:0.261515 4:0.922455 5:0.985115 6:-0.581953 
-0 5.7939063391933567 1:0.773581 2:-0.246512 3:0.382276 4:0.921075 5:0.975769 6:-0.597006 
-1.1009729670314292 0 1:0.692095 2:-0.711628 3:0.254289 4:0.889391 5:-0.20349 6:0.255518 
-0 4.3785362501941281 1:0.965411 2:-0.693023 3:0.296487 4:0.784573 5:-0.240835 6:0.215178 
-0.47239045133681218 0 1:1 2:-0.688372 3:0.660887 4:-0.546436 5:0.378858 6:0.069466 
-0 5.0093703830671688 1:0.854218 2:-0.762791 3:0.0770453 4:-0.926117 5:-0.125759 6:0.0152284 
-0 1.4765712149430423 1:0.041061 2:-0.646512 3:0.455821 4:0.0163829 5:0.725325 6:-0.260415 
-3.9928145044027508 3.5122953128381895 1:0.045305 2:-0.697674 3:-0.00918188 4:0.524024 5:0.456863 6:0.00498088 
-4.8561804708897744 0.11101154858724847 1:0.469708 2:-0.367442 3:0.251164 4:-0.0432685 5:0.631433 6:0.279827 
-0.62637890416763053 0.93122367158055774 1:-0.371883 2:-0.711628 3:-0.920091 4:0.47883 5:0.626271 6:0.129349 
-0.18107523729195465 3.8581114602055946 1:0.319257 2:-0.613953 3:-0.33491 4:0.980113 5:0.731564 6:-0.18024 
-0 -1.0117811682377229 1:0.682334 2:-1 3:0.163908 4:-1 5:-0.556599 6:1 
-0.30110508672878245 -2.9277201966133903 1:0.681485 2:-0.506977 3:-1 4:0.990178 5:0.3574 6:-0.333926 
-0 -5.4681974362004206 1:0.681698 2:-0.744186 3:-0.173003 4:0.201326 5:-0.153765 6:-0.0247485 
-0.36357660240960676 -0 1:0.675332 2:-0.804651 3:-0.939294 4:0.266226 5:0.00626644 6:0.357772 
-2.6084043000423138 -4.2673610256330363 1:0.684032 2:-0.846512 3:0.0557306 4:-0.178373 5:-0.0171208 6:0.542093 
-0.49041293314250178 -0 1:0.0885942 2:0.418605 3:1 4:0.979184 5:0.765198 6:-0.297253 
-0 -8.8979849589377196 1:0.118302 2:-0.269767 3:0.279781 4:0.945093 5:0.851013 6:-0.62803 
-2.5699873553645038 -0 1:0.0433952 2:-0.246512 3:0.255023 4:0.922726 5:0.977215 6:-0.586615 
-0.32616202172180669 -0.89810036045326813 1:0.711406 2:-0.167442 3:0.606553 4:0.958738 5:-1 6:-1 
-0 -0.77630670108087407 1:0.364668 2:-0.204651 3:0.654251 4:0.470091 5:0.399669 6:-0.916241 
-0 -0.82357433345285336 1:0.617401 2:1 3:0.447922 4:1 5:1 6:-0.619475 
